{
  "sizes": [
    105,
    1
  ],
  "activations": [
    "tanh"
  ],
  "params": {
    "W1": [
      [
        0.02269381284713745,
        -0.0323500856757164,
        -0.02094818837940693,
        -0.18681325018405914,
        -0.0033040300477296114,
        0.0010943264933302999,
        0.0754951685667038,
        -0.02990432269871235,
        0.13109055161476135,
        0.05677551403641701,
        -0.03017335757613182,
        0.34495389461517334,
        0.09909352660179138,
        -0.12763123214244843,
        0.052433304488658905,
        0.05149603262543678,
        0.05907542631030083,
        -0.17375323176383972,
        0.8397547006607056,
        -0.03405265137553215,
        -0.04424687847495079,
        -0.12209990620613098,
        0.01763063296675682,
        0.7882730960845947,
        -0.09766984730958939,
        -0.08672593533992767,
        0.46780282258987427,
        0.040070708841085434,
        0.14485429227352142,
        0.0518033429980278,
        0.5654064416885376,
        0.18553471565246582,
        -0.0479370541870594,
        0.10812588781118393,
        0.4987024664878845,
        0.33283963799476624,
        0.08229200541973114,
        0.15164588391780853,
        -0.03352260962128639,
        0.038596685975790024,
        -0.0742533951997757,
        -0.002334069460630417,
        -0.03266808018088341,
        0.08885667473077774,
        -0.045485422015190125,
        -0.016853081062436104,
        0.05703754723072052,
        0.07522857189178467,
        0.09563616663217545,
        -0.1376464068889618,
        0.06737061589956284,
        -0.06954315304756165,
        -0.14509868621826172,
        -0.04416884109377861,
        -0.023781314492225647,
        -0.005109432153403759,
        0.23567785322666168,
        0.0058781299740076065,
        0.03143880143761635,
        0.3773440718650818,
        -0.014729798771440983,
        0.02281770668923855,
        0.3203723728656769,
        0.4903172254562378,
        -0.14276264607906342,
        -0.129647895693779,
        -0.19379977881908417,
        0.2876460552215576,
        -0.14652545750141144,
        0.04640043526887894,
        0.0019522132351994514,
        0.00230537261813879,
        0.13176484405994415,
        -0.03170064464211464,
        0.05370840057730675,
        0.005993806291371584,
        0.042300689965486526,
        0.14553095400333405,
        0.16965284943580627,
        -0.06397819519042969,
        0.1059243306517601,
        0.07968314737081528,
        -0.10164421796798706,
        0.03498851880431175,
        -0.08742174506187439,
        -0.03534688055515289,
        0.08989731967449188,
        -0.025400174781680107,
        0.09971792995929718,
        -0.04194355010986328,
        0.09431131184101105,
        -0.045903854072093964,
        0.05916575342416763,
        -0.0885099470615387,
        -0.12461703270673752,
        -0.025580765679478645,
        -0.07940402626991272,
        0.09625065326690674,
        -0.11783498525619507,
        -0.11511969566345215,
        -0.007167568430304527,
        -0.06647135317325592,
        0.09356936812400818,
        -0.06866425275802612,
        -0.010623290203511715
      ]
    ],
    "b1": [
      -0.022176235914230347
    ]
  }
}